{"learner":{"attributes":{"best_iteration":"0","best_score":"0.0"},"feature_names":["sepal_length","sepal_width","petal_length","petal_width"],"feature_types":[],"gradient_booster":{"model":{"gbtree_model_param":{"num_parallel_tree":"1","num_trees":"33"},"iteration_indptr":[0,3,6,9,12,15,18,21,24,27,30,33],"tree_info":[0,1,2,0,1,2,0,1,2,0,1,2,0,1,2,0,1,2,0,1,2,0,1,2,0,1,2,0,1,2,0,1,2],"trees":[{"base_weights":[-5.134479E-2,1.3984963E-1,-7.263159E-2],"categories":[],"categories_nodes":[],"categories_segments":[],"categories_sizes":[],"default_left":[0,0,0],"id":0,"left_children":[1,-1,-1],"loss_changes":[4.5487717E1,0E0,0E0],"parents":[2147483647,0,0],"right_children":[2,-1,-1],"split_conditions":[-4.308277E-1,1.3984963E-1,-7.263159E-2],"split_indices":[2,0,0],"split_type":[0,0,0],"sum_hessian":[4.4444443E1,1.3777777E1,3.0666664E1],"tree_param":{"num_deleted":"0","num_feature":"4","num_nodes":"3","size_leaf_vector":"1"}},{"base_weights":[3.7783332E-2,-7.0212774E-2,4.3018866E-1,1.2352941E0,-6.198348E-1,4.285714E-2,1.2765957E-1,-3.2432437E-1,-6.7741945E-2,-4.2857148E-2,-1.2000003E-2],"categories":[],"categories_nodes":[],"categories_segments":[],"categories_sizes":[],"default_left":[0,0,0,0,0,0,0,0,0,0,0],"id":1,"left_children":[1,-1,3,5,7,-1,-1,9,-1,-1,-1],"loss_changes":[1.31094885E1,0E0,2.565741E1,1.9309998E-2,9.0789795E-3,0E0,0E0,3.613898E-2,0E0,0E0,0E0],"parents":[2147483647,0,0,2,2,3,3,4,4,7,7],"right_children":[2,-1,4,6,8,-1,-1,10,-1,-1,-1],"split_conditions":[-2.6238683E-1,-7.0212774E-2,6.590385E-1,-1.7433568E0,1.8982966E-1,4.285714E-2,1.2765957E-1,-5.92373E-1,-6.7741945E-2,-4.2857148E-2,-1.2000003E-2],"split_indices":[3,0,3,1,0,0,0,1,0,0,0],"split_type":[0,0,0,0,0,0,0,0,0,0,0],"sum_hessian":[4.3111107E1,1.4666666E1,2.8444443E1,1.5999999E1,1.2444444E1,1.3333333E0,1.4666666E1,3.111111E0,9.333333E0,1.3333333E0,1.7777777E0],"tree_param":{"num_deleted":"0","num_feature":"4","num_nodes":"11","size_leaf_vector":"1"}},{"base_weights":[-7.7922517E-3,-6.8965524E-2,1.3308271E0,4.285714E-2,1.3884299E-1],"categories":[],"categories_nodes":[],"categories_segments":[],"categories_sizes":[],"default_left":[0,0,0,0,0],"id":2,"left_children":[1,-1,3,-1,-1],"loss_changes":[3.996344E1,0E0,1.729927E-1,0E0,0E0],"parents":[2147483647,0,0,2,2],"right_children":[2,-1,4,-1,-1],"split_conditions":[5.92246E-1,-6.8965524E-2,6.4908344E-1,4.285714E-2,1.3884299E-1],"split_indices":[2,0,2,0,0],"split_type":[0,0,0,0,0],"sum_hessian":[4.1777775E1,2.7999998E1,1.3777777E1,1.3333333E0,1.2444444E1],"tree_param":{"num_deleted":"0","num_feature":"4","num_nodes":"5","size_leaf_vector":"1"}},{"base_weights":[5.2278195E-2,1.2341148E-1,-6.958754E-2],"categories":[],"categories_nodes":[],"categories_segments":[],"categories_sizes":[],"default_left":[0,0,0],"id":3,"left_children":[1,-1,-1],"loss_changes":[3.891064E1,0E0,0E0],"parents":[2147483647,0,0],"right_children":[2,-1,-1],"split_conditions":[-4.308277E-1,1.2341148E-1,-6.958754E-2],"split_indices":[2,0,0],"split_type":[0,0,0],"sum_hessian":[4.2035572E1,1.604314E1,2.599243E1],"tree_param":{"num_deleted":"0","num_feature":"4","num_nodes":"3","size_leaf_vector":"1"}},{"base_weights":[2.0478447E-3,-6.7708954E-2,3.50635E-1,1.05176E0,-5.9979343E-1,1.1235788E-1,3.878334E-2,-1.9316418E-2,-6.6146724E-2],"categories":[],"categories_nodes":[],"categories_segments":[],"categories_sizes":[],"default_left":[0,0,0,0,0,0,0,0,0],"id":4,"left_children":[1,-1,3,5,7,-1,-1,-1,-1],"loss_changes":[1.0833372E1,0E0,2.077897E1,4.1122627E-1,2.100997E-1,0E0,0E0,0E0,0E0],"parents":[2147483647,0,0,2,2,3,3,4,4],"right_children":[2,-1,4,6,8,-1,-1,-1,-1],"split_conditions":[-2.6238683E-1,-6.7708954E-2,7.9067063E-1,5.274063E-1,1.8982966E-1,1.1235788E-1,3.878334E-2,-1.9316418E-2,-6.6146724E-2],"split_indices":[3,0,3,3,0,0,0,0,0],"split_type":[0,0,0,0,0,0,0,0,0],"sum_hessian":[4.375807E1,1.4522374E1,2.9235699E1,1.6763071E1,1.2472627E1,1.4502021E1,2.2610507E0,2.1867712E0,1.0285855E1],"tree_param":{"num_deleted":"0","num_feature":"4","num_nodes":"9","size_leaf_vector":"1"}},{"base_weights":[2.5703207E-2,-6.6192377E-1,1.0411206E0,-6.955414E-2,-2.4725115E-2,3.458068E-1,1.1669894E-1,-4.447767E-3,5.535468E-2],"categories":[],"categories_nodes":[],"categories_segments":[],"categories_sizes":[],"default_left":[0,0,0,0,0,0,0,0,0],"id":5,"left_children":[1,3,5,-1,-1,7,-1,-1,-1],"loss_changes":[3.1746592E1,2.0625973E-1,1.2022533E0,0E0,0E0,3.6786115E-1,0E0,0E0,0E0],"parents":[2147483647,0,0,1,1,2,2,5,5],"right_children":[2,4,6,-1,-1,8,-1,-1,-1],"split_conditions":[5.92246E-1,3.957741E-1,7.9067063E-1,-6.955414E-2,-2.4725115E-2,7.6275826E-1,1.1669894E-1,-4.447767E-3,5.535468E-2],"split_indices":[2,3,3,0,0,2,0,0,0],"split_type":[0,0,0,0,0,0,0,0,0],"sum_hessian":[4.3480362E1,2.613215E1,1.7348213E1,2.3545944E1,2.5862064E0,3.233478E0,1.4114735E1,1.3962388E0,1.8372394E0],"tree_param":{"num_deleted":"0","num_feature":"4","num_nodes":"9","size_leaf_vector":"1"}},{"base_weights":[-3.248356E-2,1.094779E-1,-6.7432724E-2],"categories":[],"categories_nodes":[],"categories_segments":[],"categories_sizes":[],"default_left":[0,0,0],"id":6,"left_children":[1,-1,-1],"loss_changes":[3.1258785E1,0E0,0E0],"parents":[2147483647,0,0],"right_children":[2,-1,-1],"split_conditions":[-9.205477E-1,1.094779E-1,-6.7432724E-2],"split_indices":[3,0,0],"split_type":[0,0,0],"sum_hessian":[4.1183044E1,1.4685462E1,2.6497583E1],"tree_param":{"num_deleted":"0","num_feature":"4","num_nodes":"3","size_leaf_vector":"1"}},{"base_weights":[2.0012124E-2,-6.547824E-2,3.7842748E-1,1.0014932E0,-5.785376E-1,1.1220934E-1,-8.578273E-3,8.0285297E-4,-6.5162875E-2],"categories":[],"categories_nodes":[],"categories_segments":[],"categories_sizes":[],"default_left":[0,0,0,0,0,0,0,0,0],"id":7,"left_children":[1,-1,3,5,7,-1,-1,-1,-1],"loss_changes":[1.0661666E1,0E0,1.7724728E1,2.4279442E0,5.185518E-1,0E0,0E0,0E0,0E0],"parents":[2147483647,0,0,2,2,3,3,4,4],"right_children":[2,-1,4,6,8,-1,-1,-1,-1],"split_conditions":[-4.308277E-1,-6.547824E-2,7.059208E-1,6.590385E-1,7.6275826E-1,1.1220934E-1,-8.578273E-3,8.0285297E-4,-6.5162875E-2],"split_indices":[2,0,2,3,2,0,0,0,0],"split_type":[0,0,0,0,0,0,0,0,0],"sum_hessian":[4.205805E1,1.4302887E1,2.7755163E1,1.6782074E1,1.0973089E1,1.5077644E1,1.7044299E0,1.3144684E0,9.658621E0],"tree_param":{"num_deleted":"0","num_feature":"4","num_nodes":"9","size_leaf_vector":"1"}},{"base_weights":[-2.5877679E-2,-6.122342E-1,1.0437804E0,-6.787763E-2,3.6724404E-2,3.304447E-2,1.0945326E-1],"categories":[],"categories_nodes":[],"categories_segments":[],"categories_sizes":[],"default_left":[0,0,0,0,0,0,0],"id":8,"left_children":[1,3,5,-1,-1,-1,-1],"loss_changes":[2.6788776E1,2.0455828E0,1.861515E-1,0E0,0E0,0E0,0E0],"parents":[2147483647,0,0,1,1,2,2],"right_children":[2,4,6,-1,-1,-1,-1],"split_conditions":[7.9067063E-1,7.059208E-1,6.4908344E-1,-6.787763E-2,3.6724404E-2,3.304447E-2,1.0945326E-1],"split_indices":[3,2,2,0,0,0,0],"split_type":[0,0,0,0,0,0,0],"sum_hessian":[4.0692753E1,2.6560612E1,1.4132143E1,2.5158442E1,1.402169E0,1.4375739E0,1.269457E1],"tree_param":{"num_deleted":"0","num_feature":"4","num_nodes":"7","size_leaf_vector":"1"}},{"base_weights":[2.6957203E-2,1.0017079E-1,-6.522876E-2],"categories":[],"categories_nodes":[],"categories_segments":[],"categories_sizes":[],"default_left":[0,0,0],"id":9,"left_children":[1,-1,-1],"loss_changes":[2.732539E1,0E0,0E0],"parents":[2147483647,0,0],"right_children":[2,-1,-1],"split_conditions":[-4.308277E-1,1.0017079E-1,-6.522876E-2],"split_indices":[2,0,0],"split_type":[0,0,0],"sum_hessian":[3.9284267E1,1.5937874E1,2.3346395E1],"tree_param":{"num_deleted":"0","num_feature":"4","num_nodes":"3","size_leaf_vector":"1"}},{"base_weights":[1.8197326E-2,-6.279834E-2,2.8608733E-1,8.5957557E-1,-5.606084E-1,9.787994E-2,-1.5057583E-2,3.4239807E-3,-6.284916E-2],"categories":[],"categories_nodes":[],"categories_segments":[],"categories_sizes":[],"default_left":[0,0,0,0,0,0,0,0,0],"id":10,"left_children":[1,-1,3,5,7,-1,-1,-1,-1],"loss_changes":[7.508331E0,0E0,1.53480015E1,2.393176E0,5.451813E-1,0E0,0E0,0E0,0E0],"parents":[2147483647,0,0,2,2,3,3,4,4],"right_children":[2,-1,4,6,8,-1,-1,-1,-1],"split_conditions":[-4.308277E-1,-6.279834E-2,7.9067063E-1,7.6275826E-1,6.4908344E-1,9.787994E-2,-1.5057583E-2,3.4239807E-3,-6.284916E-2],"split_indices":[2,0,3,2,2,0,0,0,0],"split_type":[0,0,0,0,0,0,0,0,0],"sum_hessian":[4.133649E1,1.172069E1,2.9615799E1,1.7647495E1,1.1968304E1,1.5812279E1,1.835217E0,1.27667E0,1.0691634E1],"tree_param":{"num_deleted":"0","num_feature":"4","num_nodes":"9","size_leaf_vector":"1"}},{"base_weights":[-3.204143E-2,-5.919516E-1,8.728256E-1,3.0881627E-3,-6.22872E-2,1.6925024E-2,9.473838E-2],"categories":[],"categories_nodes":[],"categories_segments":[],"categories_sizes":[],"default_left":[0,0,0,0,0,0,0],"id":11,"left_children":[1,3,5,-1,-1,-1,-1],"loss_changes":[2.2881659E1,5.558758E-1,7.46006E-1,0E0,0E0,0E0,0E0],"parents":[2147483647,0,0,1,1,2,2],"right_children":[2,4,6,-1,-1,-1,-1],"split_conditions":[5.274063E-1,-1.7433568E0,7.9067063E-1,3.0881627E-3,-6.22872E-2,1.6925024E-2,9.473838E-2],"split_indices":[3,1,3,0,0,0,0],"split_type":[0,0,0,0,0,0,0],"sum_hessian":[4.314337E1,2.686547E1,1.62779E1,1.2707072E0,2.5594765E1,1.8730181E0,1.4404882E1],"tree_param":{"num_deleted":"0","num_feature":"4","num_nodes":"7","size_leaf_vector":"1"}},{"base_weights":[1.2732689E-2,9.2633635E-2,-6.354379E-2],"categories":[],"categories_nodes":[],"categories_segments":[],"categories_sizes":[],"default_left":[0,0,0],"id":12,"left_children":[1,-1,-1],"loss_changes":[2.4959538E1,0E0,0E0],"parents":[2147483647,0,0],"right_children":[2,-1,-1],"split_conditions":[-2.6238683E-1,9.2633635E-2,-6.354379E-2],"split_indices":[3,0,0],"split_type":[0,0,0],"sum_hessian":[4.0155186E1,1.6487175E1,2.366801E1],"tree_param":{"num_deleted":"0","num_feature":"4","num_nodes":"3","size_leaf_vector":"1"}},{"base_weights":[2.9790645E-2,-6.1547913E-2,3.1938905E-1,8.3943963E-1,-4.8616055E-1,9.388909E-2,-1.0569431E-2,-5.2882202E-2,-6.0118087E-2,-4.7594093E-2,4.0214524E-2],"categories":[],"categories_nodes":[],"categories_segments":[],"categories_sizes":[],"default_left":[0,0,0,0,0,0,0,0,0,0,0],"id":13,"left_children":[1,-1,3,5,7,-1,-1,9,-1,-1,-1],"loss_changes":[8.417912E0,0E0,1.3405272E1,1.9058332E0,6.0634327E-1,0E0,0E0,9.195578E-1,0E0,0E0,0E0],"parents":[2147483647,0,0,2,2,3,3,4,4,7,7],"right_children":[2,-1,4,6,8,-1,-1,10,-1,-1,-1],"split_conditions":[-4.308277E-1,-6.1547913E-2,7.059208E-1,6.590385E-1,7.9067063E-1,9.388909E-2,-1.0569431E-2,5.274063E-1,-6.0118087E-2,-4.7594093E-2,4.0214524E-2],"split_indices":[2,0,2,3,3,0,0,3,0,0,0],"split_type":[0,0,0,0,0,0,0,0,0,0,0],"sum_hessian":[4.2995155E1,1.29702215E1,3.0024935E1,1.8220188E1,1.1804747E1,1.6491484E1,1.7287037E0,2.782586E0,9.022161E0,1.4181292E0,1.364457E0],"tree_param":{"num_deleted":"0","num_feature":"4","num_nodes":"11","size_leaf_vector":"1"}},{"base_weights":[-3.7452787E-2,-5.6841105E-1,8.340485E-2,-6.3782945E-2,3.486209E-2],"categories":[],"categories_nodes":[],"categories_segments":[],"categories_sizes":[],"default_left":[0,0,0,0,0],"id":14,"left_children":[1,3,-1,-1,-1],"loss_changes":[1.8791508E1,1.826149E0,0E0,0E0,0E0],"parents":[2147483647,0,0,1,1],"right_children":[2,4,-1,-1,-1],"split_conditions":[6.590385E-1,7.059208E-1,8.340485E-2,-6.3782945E-2,3.486209E-2],"split_indices":[3,2,0,0,0],"split_type":[0,0,0,0,0],"sum_hessian":[3.8585487E1,2.4193491E1,1.4391998E1,2.2773987E1,1.419504E0],"tree_param":{"num_deleted":"0","num_feature":"4","num_nodes":"5","size_leaf_vector":"1"}},{"base_weights":[3.945097E-3,8.573896E-2,-6.1941486E-2],"categories":[],"categories_nodes":[],"categories_segments":[],"categories_sizes":[],"default_left":[0,0,0],"id":15,"left_children":[1,-1,-1],"loss_changes":[2.2470953E1,0E0,0E0],"parents":[2147483647,0,0],"right_children":[2,-1,-1],"split_conditions":[-4.308277E-1,8.573896E-2,-6.1941486E-2],"split_indices":[2,0,0],"split_type":[0,0,0],"sum_hessian":[4.024012E1,1.6826906E1,2.3413214E1],"tree_param":{"num_deleted":"0","num_feature":"4","num_nodes":"3","size_leaf_vector":"1"}},{"base_weights":[-1.980092E-2,-5.9782054E-2,2.3648335E-1,7.2501117E-1,-5.2487034E-1,8.1749797E-1,5.063688E-3,5.5403947E-3,-5.9490006E-2,2.0759284E-2,8.636985E-2],"categories":[],"categories_nodes":[],"categories_segments":[],"categories_sizes":[],"default_left":[0,0,0,0,0,0,0,0,0,0,0],"id":16,"left_children":[1,-1,3,5,7,9,-1,-1,-1,-1,-1],"loss_changes":[6.4014215E0,0E0,1.1536533E1,1.1243391E0,5.3292847E-1,2.8198242E-1,0E0,0E0,0E0,0E0,0E0],"parents":[2147483647,0,0,2,2,3,3,4,4,5,5],"right_children":[2,-1,4,6,8,10,-1,-1,-1,-1,-1],"split_conditions":[-4.308277E-1,-5.9782054E-2,7.9067063E-1,7.059208E-1,6.4908344E-1,-7.795133E-1,5.063688E-3,5.5403947E-3,-5.9490006E-2,2.0759284E-2,8.636985E-2],"split_indices":[2,0,3,2,2,0,0,0,0,0,0],"split_type":[0,0,0,0,0,0,0,0,0,0,0],"sum_hessian":[4.12584E1,1.2264527E1,2.8993874E1,1.7690424E1,1.1303449E1,1.5370247E1,2.3201773E0,1.2397335E0,1.0063716E1,1.4691341E0,1.39011135E1],"tree_param":{"num_deleted":"0","num_feature":"4","num_nodes":"11","size_leaf_vector":"1"}},{"base_weights":[-2.790356E-4,-6.195454E-2,7.7864856E-1,4.455664E-1,8.637157E-2,7.51514E-2,-1.3179976E-3],"categories":[],"categories_nodes":[],"categories_segments":[],"categories_sizes":[],"default_left":[0,0,0,0,0,0,0],"id":17,"left_children":[1,-1,3,5,-1,-1,-1],"loss_changes":[1.9764706E1,0E0,1.2937069E-1,8.179914E-1,0E0,0E0,0E0],"parents":[2147483647,0,0,2,2,3,3],"right_children":[2,-1,4,6,-1,-1,-1],"split_conditions":[5.92246E-1,-6.195454E-2,7.6275826E-1,5.533333E-1,8.637157E-2,7.51514E-2,-1.3179976E-3],"split_indices":[2,0,2,0,0,0,0],"split_type":[0,0,0,0,0,0,0],"sum_hessian":[3.8974606E1,2.182657E1,1.7148037E1,4.7575555E0,1.2390481E1,2.471242E0,2.2863135E0],"tree_param":{"num_deleted":"0","num_feature":"4","num_nodes":"7","size_leaf_vector":"1"}},{"base_weights":[2.966737E-2,8.101975E-2,-6.044316E-2],"categories":[],"categories_nodes":[],"categories_segments":[],"categories_sizes":[],"default_left":[0,0,0],"id":18,"left_children":[1,-1,-1],"loss_changes":[2.0428343E1,0E0,0E0],"parents":[2147483647,0,0],"right_children":[2,-1,-1],"split_conditions":[-4.308277E-1,8.101975E-2,-6.044316E-2],"split_indices":[2,0,0],"split_type":[0,0,0],"sum_hessian":[3.9285492E1,1.7485E1,2.1800491E1],"tree_param":{"num_deleted":"0","num_feature":"4","num_nodes":"3","size_leaf_vector":"1"}},{"base_weights":[1.9937031E-2,-5.803758E-2,2.8025803E-1,8.088067E-2,-3.5183257E-1,-8.4598035E-2,-5.5729516E-2,-3.456219E-1,3.4170784E-2,-4.7366813E-2,-8.946997E-3],"categories":[],"categories_nodes":[],"categories_segments":[],"categories_sizes":[],"default_left":[0,0,0,0,0,0,0,0,0,0,0],"id":19,"left_children":[1,-1,3,-1,5,7,-1,9,-1,-1,-1],"loss_changes":[6.313963E0,0E0,9.682709E0,0E0,6.944978E-1,9.026059E-1,0E0,1.1734861E-1,0E0,0E0,0E0],"parents":[2147483647,0,0,2,2,4,4,5,5,7,7],"right_children":[2,-1,4,-1,6,8,-1,10,-1,-1,-1],"split_conditions":[-4.308277E-1,-5.803758E-2,5.92246E-1,8.088067E-2,8.195957E-1,5.533333E-1,-5.5729516E-2,7.6275826E-1,3.4170784E-2,-4.7366813E-2,-8.946997E-3],"split_indices":[2,0,2,0,2,0,0,2,0,0,0],"split_type":[0,0,0,0,0,0,0,0,0,0,0],"sum_hessian":[3.8362316E1,1.1231794E1,2.7130522E1,1.4623176E1,1.2507346E1,6.0500736E0,6.4572725E0,3.869854E0,2.1802197E0,2.0139465E0,1.8559076E0],"tree_param":{"num_deleted":"0","num_feature":"4","num_nodes":"11","size_leaf_vector":"1"}},{"base_weights":[3.2679033E-3,-5.5450094E-1,6.5825266E-1,-5.9711408E-2,-1.3891348E-1,1.6308807E-1,7.683069E-2,1.0999044E-2,-3.295171E-2,5.6159433E-2,-2.3793211E-2],"categories":[],"categories_nodes":[],"categories_segments":[],"categories_sizes":[],"default_left":[0,0,0,0,0,0,0,0,0,0,0],"id":20,"left_children":[1,3,5,-1,7,9,-1,-1,-1,-1,-1],"loss_changes":[1.3554806E1,2.7198076E-1,8.0449533E-1,0E0,1.8649592E-1,8.3231753E-1,0E0,0E0,0E0,0E0,0E0],"parents":[2147483647,0,0,1,1,2,2,4,4,5,5],"right_children":[2,4,6,-1,8,10,-1,-1,-1,-1,-1],"split_conditions":[5.92246E-1,3.957741E-1,7.6275826E-1,-5.9711408E-2,9.8217286E-2,-3.6217624E-1,7.683069E-2,1.0999044E-2,-3.295171E-2,5.6159433E-2,-2.3793211E-2],"split_indices":[2,3,2,0,1,1,0,0,0,0,0],"split_type":[0,0,0,0,0,0,0,0,0,0,0],"sum_hessian":[3.5103794E1,1.9041737E1,1.606206E1,1.6874664E1,2.1670728E0,3.3720694E0,1.2689989E1,1.1232232E0,1.0438497E0,1.4904995E0,1.88157E0],"tree_param":{"num_deleted":"0","num_feature":"4","num_nodes":"11","size_leaf_vector":"1"}},{"base_weights":[1.8096443E-2,7.639056E-2,-5.9057105E-2],"categories":[],"categories_nodes":[],"categories_segments":[],"categories_sizes":[],"default_left":[0,0,0],"id":21,"left_children":[1,-1,-1],"loss_changes":[1.771684E1,0E0,0E0],"parents":[2147483647,0,0],"right_children":[2,-1,-1],"split_conditions":[-4.308277E-1,7.639056E-2,-5.9057105E-2],"split_indices":[2,0,0],"split_type":[0,0,0],"sum_hessian":[3.703438E1,1.6527702E1,2.050668E1],"tree_param":{"num_deleted":"0","num_feature":"4","num_nodes":"3","size_leaf_vector":"1"}},{"base_weights":[1.342837E-2,-5.5733085E-2,2.3026505E-1,7.043725E-1,-4.2924452E-1,7.696694E-2,-5.9848564E-4,6.881773E-3,-5.5868786E-2],"categories":[],"categories_nodes":[],"categories_segments":[],"categories_sizes":[],"default_left":[0,0,0,0,0,0,0,0,0],"id":22,"left_children":[1,-1,3,5,7,-1,-1,-1,-1],"loss_changes":[4.4960957E0,0E0,8.520493E0,7.314205E-1,7.8718567E-1,0E0,0E0,0E0,0E0],"parents":[2147483647,0,0,2,2,3,3,4,4],"right_children":[2,-1,4,6,8,-1,-1,-1,-1],"split_conditions":[-4.308277E-1,-5.5733085E-2,7.059208E-1,6.590385E-1,7.9067063E-1,7.696694E-2,-5.9848564E-4,6.881773E-3,-5.5868786E-2],"split_indices":[2,0,2,3,3,0,0,0,0],"split_type":[0,0,0,0,0,0,0,0,0],"sum_hessian":[3.4291756E1,9.008701E0,2.5283054E1,1.4669463E1,1.0613591E1,1.3358077E1,1.3113861E0,2.2860105E0,8.32758E0],"tree_param":{"num_deleted":"0","num_feature":"4","num_nodes":"9","size_leaf_vector":"1"}},{"base_weights":[-4.3801237E-2,-5.3935575E-1,6.7359805E-1,-5.8276832E-2,-1.5794128E-2,2.2797245E-1,7.770906E-2,5.3605337E-2,-1.7086841E-2],"categories":[],"categories_nodes":[],"categories_segments":[],"categories_sizes":[],"default_left":[0,0,0,0,0,0,0,0,0],"id":23,"left_children":[1,3,5,-1,-1,7,-1,-1,-1],"loss_changes":[1.1744098E1,2.3066092E-1,4.4653177E-1,0E0,0E0,5.7866347E-1,0E0,0E0,0E0],"parents":[2147483647,0,0,1,1,2,2,5,5],"right_children":[2,4,6,-1,-1,8,-1,-1,-1],"split_conditions":[5.92246E-1,4.217337E-1,7.6275826E-1,-5.8276832E-2,-1.5794128E-2,-3.6217624E-1,7.770906E-2,5.3605337E-2,-1.7086841E-2],"split_indices":[2,2,2,0,0,1,0,0,0],"split_type":[0,0,0,0,0,0,0,0,0],"sum_hessian":[3.1012533E1,1.848909E1,1.2523442E1,1.6125744E1,2.3633466E0,2.9639294E0,9.559512E0,1.4781319E0,1.4857975E0],"tree_param":{"num_deleted":"0","num_feature":"4","num_nodes":"9","size_leaf_vector":"1"}},{"base_weights":[4.598664E-2,7.219177E-2,-5.7299584E-2],"categories":[],"categories_nodes":[],"categories_segments":[],"categories_sizes":[],"default_left":[0,0,0],"id":24,"left_children":[1,-1,-1],"loss_changes":[1.4049391E1,0E0,0E0],"parents":[2147483647,0,0],"right_children":[2,-1,-1],"split_conditions":[-4.308277E-1,7.219177E-2,-5.7299584E-2],"split_indices":[2,0,0],"split_type":[0,0,0],"sum_hessian":[3.1591013E1,1.502135E1,1.6569664E1],"tree_param":{"num_deleted":"0","num_feature":"4","num_nodes":"3","size_leaf_vector":"1"}},{"base_weights":[-1.0573937E-2,1.9870405E-1,-5.6355286E-2,-5.490285E-2,6.136261E-1,6.85409E-1,7.088899E-3,2.348779E-2,7.287117E-2],"categories":[],"categories_nodes":[],"categories_segments":[],"categories_sizes":[],"default_left":[0,0,0,0,0,0,0,0,0],"id":25,"left_children":[1,3,-1,-1,5,7,-1,-1,-1],"loss_changes":[4.4757895E0,9.053265E0,0E0,0E0,6.737385E-1,1.4605045E-1,0E0,0E0,0E0],"parents":[2147483647,0,0,1,1,4,4,5,5],"right_children":[2,4,-1,-1,6,8,-1,-1,-1],"split_conditions":[7.9067063E-1,-4.308277E-1,-5.6355286E-2,-5.490285E-2,7.059208E-1,-9.006812E-1,7.088899E-3,2.348779E-2,7.287117E-2],"split_indices":[3,2,0,0,2,0,0,0,0],"split_type":[0,0,0,0,0,0,0,0,0],"sum_hessian":[3.6708015E1,2.7094584E1,9.613432E0,9.5540285E0,1.7540556E1,1.5259453E1,2.2811031E0,1.9013581E0,1.3358094E1],"tree_param":{"num_deleted":"0","num_feature":"4","num_nodes":"9","size_leaf_vector":"1"}},{"base_weights":[1.3746224E-2,-5.745683E-2,5.7565993E-1,8.2027994E-2,6.580974E-2,2.4002945E-2,-1.1075034E-2],"categories":[],"categories_nodes":[],"categories_segments":[],"categories_sizes":[],"default_left":[0,0,0,0,0,0,0],"id":26,"left_children":[1,-1,3,5,-1,-1,-1],"loss_changes":[1.1808833E1,0E0,6.8902063E-1,1.4096487E-1,0E0,0E0,0E0],"parents":[2147483647,0,0,2,2,3,3],"right_children":[2,-1,4,6,-1,-1,-1],"split_conditions":[5.92246E-1,-5.745683E-2,7.059208E-1,-3.6217624E-1,6.580974E-2,2.4002945E-2,-1.1075034E-2],"split_indices":[2,0,2,1,0,0,0],"split_type":[0,0,0,0,0,0,0],"sum_hessian":[3.3720818E1,1.6462416E1,1.72584E1,2.7552304E0,1.450317E1,1.3794912E0,1.3757392E0],"tree_param":{"num_deleted":"0","num_feature":"4","num_nodes":"7","size_leaf_vector":"1"}},{"base_weights":[3.2710742E-2,6.955946E-2,-5.667388E-2],"categories":[],"categories_nodes":[],"categories_segments":[],"categories_sizes":[],"default_left":[0,0,0],"id":27,"left_children":[1,-1,-1],"loss_changes":[1.438652E1,0E0,0E0],"parents":[2147483647,0,0],"right_children":[2,-1,-1],"split_conditions":[-4.308277E-1,6.955946E-2,-5.667388E-2],"split_indices":[2,0,0],"split_type":[0,0,0],"sum_hessian":[3.4212677E1,1.6170551E1,1.8042124E1],"tree_param":{"num_deleted":"0","num_feature":"4","num_nodes":"3","size_leaf_vector":"1"}},{"base_weights":[-5.8823902E-2,1.6619238E-1,-5.427453E-2,4.3797922E-1,-5.3191643E-2,-3.429215E-2,5.2453285E-1,6.335486E-2,-1.4895831E-2,-4.380618E-2,4.1596577E-2],"categories":[],"categories_nodes":[],"categories_segments":[],"categories_sizes":[],"default_left":[0,0,0,0,0,0,0,0,0,0,0],"id":28,"left_children":[1,3,-1,5,-1,-1,7,-1,9,-1,-1],"loss_changes":[3.731353E0,4.709029E0,0E0,1.364629E0,0E0,0E0,9.606247E-1,0E0,8.561578E-1,0E0,0E0],"parents":[2147483647,0,0,1,1,3,3,6,6,8,8],"right_children":[2,4,-1,6,-1,-1,8,-1,10,-1,-1],"split_conditions":[3.2841405E-1,7.9067063E-1,-5.427453E-2,-1.1697142E0,-5.3191643E-2,-3.429215E-2,7.059208E-1,6.335486E-2,5.274063E-1,-4.380618E-2,4.1596577E-2],"split_indices":[1,3,0,2,0,0,2,0,3,0,0],"split_type":[0,0,0,0,0,0,0,0,0,0,0],"sum_hessian":[3.243876E1,2.2590899E1,9.847862E0,1.6528618E1,6.0622797E0,1.3536669E0,1.5174951E1,1.2478609E1,2.6963422E0,1.3518885E0,1.3444536E0],"tree_param":{"num_deleted":"0","num_feature":"4","num_nodes":"11","size_leaf_vector":"1"}},{"base_weights":[-6.0547474E-3,-5.192893E-1,5.8214813E-1,-2.1336359E-1,-5.618232E-2,3.497729E-1,6.940721E-2,1.5357074E-2,-3.951975E-2,5.0982904E-1,-2.0222494E-3,6.3477665E-2,1.8137254E-2],"categories":[],"categories_nodes":[],"categories_segments":[],"categories_sizes":[],"default_left":[0,0,0,0,0,0,0,0,0,0,0,0,0],"id":29,"left_children":[1,3,5,7,-1,9,-1,-1,-1,11,-1,-1,-1],"loss_changes":[1.0923595E1,1.3149023E-1,1.9588041E-1,3.2558984E-1,0E0,4.543745E-1,0E0,0E0,0E0,1.01248026E-1,0E0,0E0,0E0],"parents":[2147483647,0,0,1,1,2,2,3,3,5,5,9,9],"right_children":[2,4,6,8,-1,10,-1,-1,-1,12,-1,-1,-1],"split_conditions":[5.92246E-1,-1.0527666E0,8.195957E-1,-9.006812E-1,-5.618232E-2,5.533333E-1,6.940721E-2,1.5357074E-2,-3.951975E-2,7.6275826E-1,-2.0222494E-3,6.3477665E-2,1.8137254E-2],"split_indices":[2,1,2,0,0,0,0,0,0,2,0,0,0],"split_type":[0,0,0,0,0,0,0,0,0,0,0,0,0],"sum_hessian":[3.4183117E1,1.8317446E1,1.586567E1,2.9702446E0,1.5347201E1,6.4985504E0,9.36712E0,1.035691E0,1.9345536E0,4.2724147E0,2.2261355E0,2.4194362E0,1.8529786E0],"tree_param":{"num_deleted":"0","num_feature":"4","num_nodes":"13","size_leaf_vector":"1"}},{"base_weights":[-7.695638E-2,6.54267E-2,-5.5816054E-2],"categories":[],"categories_nodes":[],"categories_segments":[],"categories_sizes":[],"default_left":[0,0,0],"id":30,"left_children":[1,-1,-1],"loss_changes":[1.084748E1,0E0,0E0],"parents":[2147483647,0,0],"right_children":[2,-1,-1],"split_conditions":[-4.308277E-1,6.54267E-2,-5.5816054E-2],"split_indices":[2,0,0],"split_type":[0,0,0],"sum_hessian":[2.8790442E1,1.1283988E1,1.7506453E1],"tree_param":{"num_deleted":"0","num_feature":"4","num_nodes":"3","size_leaf_vector":"1"}},{"base_weights":[-7.9300664E-2,-5.2722663E-2,1.164617E-1,5.5200297E-1,-4.1735637E-1,8.333351E-3,6.0218066E-1,-1.4292203E-1,-5.2527215E-2,6.470856E-2,1.0625546E-2,-3.485869E-2,2.7658641E-2,1.3583313E-2,-8.349058E-3],"categories":[],"categories_nodes":[],"categories_segments":[],"categories_sizes":[],"default_left":[0,0,0,0,0,0,0,0,0,0,0,0,0,0,0],"id":31,"left_children":[1,-1,3,5,7,-1,9,11,-1,-1,-1,-1,13,-1,-1],"loss_changes":[2.7931666E0,0E0,5.461171E0,2.513032E-1,2.411648E-1,0E0,1.8555212E-1,1.63569E-1,0E0,0E0,0E0,0E0,5.131718E-2,0E0,0E0],"parents":[2147483647,0,0,2,2,3,3,4,4,6,6,7,7,12,12],"right_children":[2,-1,4,6,8,-1,10,12,-1,-1,-1,-1,14,-1,-1],"split_conditions":[-4.308277E-1,-5.2722663E-2,6.4908344E-1,-9.006812E-1,8.195957E-1,8.333351E-3,5.92246E-1,-1.0527666E0,-5.2527215E-2,6.470856E-2,1.0625546E-2,-3.485869E-2,3.1099755E-1,1.3583313E-2,-8.349058E-3],"split_indices":[2,0,2,0,2,0,2,1,0,0,0,0,0,0,0],"split_type":[0,0,0,0,0,0,0,0,0,0,0,0,0,0,0],"sum_hessian":[3.015358E1,8.655543E0,2.1498035E1,1.1820028E1,9.678007E0,1.4004368E0,1.0419592E1,3.387595E0,6.2904124E0,9.27496E0,1.1446329E0,1.0627421E0,2.3248527E0,1.0656471E0,1.2592056E0],"tree_param":{"num_deleted":"0","num_feature":"4","num_nodes":"15","size_leaf_vector":"1"}},{"base_weights":[3.949942E-2,-4.9984288E-1,5.964556E-1,-5.4903623E-2,-1.0659413E-2,1.3198829E-1,6.97774E-2,3.1189844E-2,-1.3910371E-2],"categories":[],"categories_nodes":[],"categories_segments":[],"categories_sizes":[],"default_left":[0,0,0,0,0,0,0,0,0],"id":32,"left_children":[1,3,5,-1,-1,7,-1,-1,-1],"loss_changes":[9.975702E0,2.6862717E-1,6.752224E-1,0E0,0E0,2.4594676E-1,0E0,0E0,0E0],"parents":[2147483647,0,0,1,1,2,2,5,5],"right_children":[2,4,6,-1,-1,8,-1,-1,-1],"split_conditions":[5.92246E-1,3.957741E-1,7.059208E-1,-5.4903623E-2,-1.0659413E-2,-3.6217624E-1,6.97774E-2,3.1189844E-2,-1.3910371E-2],"split_indices":[2,3,2,0,0,1,0,0,0],"split_type":[0,0,0,0,0,0,0,0,0],"sum_hessian":[3.1216679E1,1.591121E1,1.53054695E1,1.3789998E1,2.121212E0,3.1531956E0,1.2152274E1,1.8048687E0,1.3483269E0],"tree_param":{"num_deleted":"0","num_feature":"4","num_nodes":"9","size_leaf_vector":"1"}}]},"name":"gbtree"},"learner_model_param":{"base_score":"5E-1","boost_from_average":"1","num_class":"3","num_feature":"4","num_target":"1"},"objective":{"name":"multi:softprob","softmax_multiclass_param":{"num_class":"3"}}},"version":[2,1,2]}